<?xml version="1.0"?>
<opencv_storage>
<cascade>
  <stageType>BOOST</stageType>
  <featureType>HAAR</featureType>
  <height>20</height>
  <width>20</width>
  <stageParams>
    <boostType>GAB</boostType>
    <minHitRate>9.9500000476837158e-01</minHitRate>
    <maxFalseAlarm>5.0000000000000000e-01</maxFalseAlarm>
    <weightTrimRate>9.4999999999999996e-01</weightTrimRate>
    <maxDepth>1</maxDepth>
    <maxWeakCount>100</maxWeakCount></stageParams>
  <featureParams>
    <maxCatCount>0</maxCatCount>
    <featSize>1</featSize>
    <mode>BASIC</mode></featureParams>
  <stageNum>9</stageNum>
  <stages>
    <!-- stage 0 -->
    <_>
      <maxWeakCount>2</maxWeakCount>
      <stageThreshold>-1.2750350870192051e-02</stageThreshold>
      <weakClassifiers>
        <_>
          <internalNodes>
            0 -1 7 5.0333455204963684e-02</internalNodes>
          <leafValues>
            -8.7096774578094482e-01 9.3103450536727905e-01</leafValues></_>
        <_>
          <internalNodes>
            0 -1 11 1.8908850848674774e-02</internalNodes>
          <leafValues>
            -9.4378483295440674e-01 8.7291163206100464e-01</leafValues></_></weakClassifiers></_>
    <!-- stage 1 -->
    <_>
      <maxWeakCount>2</maxWeakCount>
      <stageThreshold>-2.0236791670322418e-01</stageThreshold>
      <weakClassifiers>
        <_>
          <internalNodes>
            0 -1 17 -8.6069423705339432e-03</internalNodes>
          <leafValues>
            8.0645161867141724e-01 -8.6206895112991333e-01</leafValues></_>
        <_>
          <internalNodes>
            0 -1 6 -2.8404165059328079e-02</internalNodes>
          <leafValues>
            6.5970104932785034e-01 -9.4096857309341431e-01</leafValues></_></weakClassifiers></_>
    <!-- stage 2 -->
    <_>
      <maxWeakCount>2</maxWeakCount>
      <stageThreshold>-8.5425496101379395e-02</stageThreshold>
      <weakClassifiers>
        <_>
          <internalNodes>
            0 -1 12 -5.1285631954669952e-02</internalNodes>
          <leafValues>
            -7.5438594818115234e-01 6.8253970146179199e-01</leafValues></_>
        <_>
          <internalNodes>
            0 -1 14 -2.4583790451288223e-02</internalNodes>
          <leafValues>
            7.6816147565841675e-01 -7.6796519756317139e-01</leafValues></_></weakClassifiers></_>
    <!-- stage 3 -->
    <_>
      <maxWeakCount>2</maxWeakCount>
      <stageThreshold>-3.3688771724700928e-01</stageThreshold>
      <weakClassifiers>
        <_>
          <internalNodes>
            0 -1 4 -1.9753580912947655e-02</internalNodes>
          <leafValues>
            6.3888889551162720e-01 -9.5833331346511841e-01</leafValues></_>
        <_>
          <internalNodes>
            0 -1 2 2.1324544213712215e-03</internalNodes>
          <leafValues>
            -8.6118841171264648e-01 6.2144559621810913e-01</leafValues></_></weakClassifiers></_>
    <!-- stage 4 -->
    <_>
      <maxWeakCount>2</maxWeakCount>
      <stageThreshold>-9.1955460608005524e-02</stageThreshold>
      <weakClassifiers>
        <_>
          <internalNodes>
            0 -1 1 -3.5097826272249222e-02</internalNodes>
          <leafValues>
            -9.5833331346511841e-01 6.3888889551162720e-01</leafValues></_>
        <_>
          <internalNodes>
            0 -1 9 2.5484241545200348e-02</internalNodes>
          <leafValues>
            -7.3084437847137451e-01 8.6925935745239258e-01</leafValues></_></weakClassifiers></_>
    <!-- stage 5 -->
    <_>
      <maxWeakCount>2</maxWeakCount>
      <stageThreshold>-1.3291192054748535e-01</stageThreshold>
      <weakClassifiers>
        <_>
          <internalNodes>
            0 -1 3 -6.1318159103393555e-02</internalNodes>
          <leafValues>
            -8.8461536169052124e-01 6.7647057771682739e-01</leafValues></_>
        <_>
          <internalNodes>
            0 -1 15 1.9770570099353790e-02</internalNodes>
          <leafValues>
            -6.8264096975326538e-01 7.5170344114303589e-01</leafValues></_></weakClassifiers></_>
    <!-- stage 6 -->
    <_>
      <maxWeakCount>3</maxWeakCount>
      <stageThreshold>2.3350486159324646e-01</stageThreshold>
      <weakClassifiers>
        <_>
          <internalNodes>
            0 -1 0 1.1303047649562359e-03</internalNodes>
          <leafValues>
            -8.6956518888473511e-01 5.4054051637649536e-01</leafValues></_>
        <_>
          <internalNodes>
            0 -1 18 1.8216895405203104e-03</internalNodes>
          <leafValues>
            -7.8957051038742065e-01 6.4951401948928833e-01</leafValues></_>
        <_>
          <internalNodes>
            0 -1 8 -3.0730268917977810e-03</internalNodes>
          <leafValues>
            -8.7571287155151367e-01 4.8253482580184937e-01</leafValues></_></weakClassifiers></_>
    <!-- stage 7 -->
    <_>
      <maxWeakCount>2</maxWeakCount>
      <stageThreshold>-1.8792212009429932e-01</stageThreshold>
      <weakClassifiers>
        <_>
          <internalNodes>
            0 -1 5 -4.5343264937400818e-02</internalNodes>
          <leafValues>
            8.2758623361587524e-01 -7.7419352531433105e-01</leafValues></_>
        <_>
          <internalNodes>
            0 -1 16 7.3926700279116631e-03</internalNodes>
          <leafValues>
            -8.0036979913711548e-01 5.8627140522003174e-01</leafValues></_></weakClassifiers></_>
    <!-- stage 8 -->
    <_>
      <maxWeakCount>2</maxWeakCount>
      <stageThreshold>3.0431414023041725e-02</stageThreshold>
      <weakClassifiers>
        <_>
          <internalNodes>
            0 -1 10 2.3105761036276817e-02</internalNodes>
          <leafValues>
            -6.2500000000000000e-01 7.1428573131561279e-01</leafValues></_>
        <_>
          <internalNodes>
            0 -1 13 -5.0562374293804169e-02</internalNodes>
          <leafValues>
            6.5543138980865479e-01 -6.6230446100234985e-01</leafValues></_></weakClassifiers></_></stages>
  <features>
    <_>
      <rects>
        <_>
          2 10 4 2 -1.</_>
        <_>
          4 10 2 2 2.</_></rects>
      <tilted>0</tilted></_>
    <_>
      <rects>
        <_>
          2 10 9 1 -1.</_>
        <_>
          5 10 3 1 2.</_></rects>
      <tilted>0</tilted></_>
    <_>
      <rects>
        <_>
          3 7 4 3 -1.</_>
        <_>
          5 7 2 3 2.</_></rects>
      <tilted>0</tilted></_>
    <_>
      <rects>
        <_>
          4 5 1 15 -1.</_>
        <_>
          4 10 1 5 2.</_></rects>
      <tilted>0</tilted></_>
    <_>
      <rects>
        <_>
          4 6 10 10 -1.</_>
        <_>
          9 6 5 10 2.</_></rects>
      <tilted>0</tilted></_>
    <_>
      <rects>
        <_>
          5 7 14 6 -1.</_>
        <_>
          5 10 14 3 2.</_></rects>
      <tilted>0</tilted></_>
    <_>
      <rects>
        <_>
          6 6 9 8 -1.</_>
        <_>
          6 10 9 4 2.</_></rects>
      <tilted>0</tilted></_>
    <_>
      <rects>
        <_>
          7 3 10 8 -1.</_>
        <_>
          12 3 5 8 2.</_></rects>
      <tilted>0</tilted></_>
    <_>
      <rects>
        <_>
          8 4 9 4 -1.</_>
        <_>
          8 6 9 2 2.</_></rects>
      <tilted>0</tilted></_>
    <_>
      <rects>
        <_>
          10 8 8 2 -1.</_>
        <_>
          14 8 4 2 2.</_></rects>
      <tilted>0</tilted></_>
    <_>
      <rects>
        <_>
          11 7 6 3 -1.</_>
        <_>
          14 7 3 3 2.</_></rects>
      <tilted>0</tilted></_>
    <_>
      <rects>
        <_>
          12 9 6 5 -1.</_>
        <_>
          15 9 3 5 2.</_></rects>
      <tilted>0</tilted></_>
    <_>
      <rects>
        <_>
          13 1 1 15 -1.</_>
        <_>
          13 6 1 5 2.</_></rects>
      <tilted>0</tilted></_>
    <_>
      <rects>
        <_>
          13 4 3 10 -1.</_>
        <_>
          13 9 3 5 2.</_></rects>
      <tilted>0</tilted></_>
    <_>
      <rects>
        <_>
          13 6 2 8 -1.</_>
        <_>
          13 10 2 4 2.</_></rects>
      <tilted>0</tilted></_>
    <_>
      <rects>
        <_>
          14 4 4 8 -1.</_>
        <_>
          14 4 2 4 2.</_>
        <_>
          16 8 2 4 2.</_></rects>
      <tilted>0</tilted></_>
    <_>
      <rects>
        <_>
          14 7 4 4 -1.</_>
        <_>
          14 7 2 2 2.</_>
        <_>
          16 9 2 2 2.</_></rects>
      <tilted>0</tilted></_>
    <_>
      <rects>
        <_>
          14 8 5 4 -1.</_>
        <_>
          14 10 5 2 2.</_></rects>
      <tilted>0</tilted></_>
    <_>
      <rects>
        <_>
          16 8 2 3 -1.</_>
        <_>
          17 8 1 3 2.</_></rects>
      <tilted>0</tilted></_></features></cascade>
</opencv_storage>
